FANN_FLO_2.1
num_layers=3
learning_rate=0.700000
connection_rate=1.000000
network_type=0
learning_momentum=0.000000
training_algorithm=2
train_error_function=1
train_stop_function=1
cascade_output_change_fraction=0.010000
quickprop_decay=-0.000100
quickprop_mu=1.750000
rprop_increase_factor=1.200000
rprop_decrease_factor=0.500000
rprop_delta_min=0.000000
rprop_delta_max=50.000000
rprop_delta_zero=0.100000
cascade_output_stagnation_epochs=12
cascade_candidate_change_fraction=0.010000
cascade_candidate_stagnation_epochs=12
cascade_max_out_epochs=150
cascade_min_out_epochs=50
cascade_max_cand_epochs=150
cascade_min_cand_epochs=50
cascade_num_candidate_groups=2
bit_fail_limit=0.00000000000000000000e+00
cascade_candidate_limit=1.00000000000000000000e+03
cascade_weight_multiplier=4.00000005960464477539e-01
cascade_activation_functions_count=10
cascade_activation_functions=3 5 7 8 10 11 14 15 16 17 
cascade_activation_steepnesses_count=4
cascade_activation_steepnesses=2.50000000000000000000e-01 5.00000000000000000000e-01 7.50000000000000000000e-01 1.00000000000000000000e+00 
layer_sizes=6 51 2 
scale_included=0
neurons (num_inputs, activation_function, activation_steepness)=(0, 0, 0.00000000000000000000e+00) (0, 0, 0.00000000000000000000e+00) (0, 0, 0.00000000000000000000e+00) (0, 0, 0.00000000000000000000e+00) (0, 0, 0.00000000000000000000e+00) (0, 0, 0.00000000000000000000e+00) (6, 5, 1.00000000000000000000e+00) (6, 5, 1.00000000000000000000e+00) (6, 5, 1.00000000000000000000e+00) (6, 5, 1.00000000000000000000e+00) (6, 5, 1.00000000000000000000e+00) (6, 5, 1.00000000000000000000e+00) (6, 5, 1.00000000000000000000e+00) (6, 5, 1.00000000000000000000e+00) (6, 5, 1.00000000000000000000e+00) (6, 5, 1.00000000000000000000e+00) (6, 5, 1.00000000000000000000e+00) (6, 5, 1.00000000000000000000e+00) (6, 5, 1.00000000000000000000e+00) (6, 5, 1.00000000000000000000e+00) (6, 5, 1.00000000000000000000e+00) (6, 5, 1.00000000000000000000e+00) (6, 5, 1.00000000000000000000e+00) (6, 5, 1.00000000000000000000e+00) (6, 5, 1.00000000000000000000e+00) (6, 5, 1.00000000000000000000e+00) (6, 5, 1.00000000000000000000e+00) (6, 5, 1.00000000000000000000e+00) (6, 5, 1.00000000000000000000e+00) (6, 5, 1.00000000000000000000e+00) (6, 5, 1.00000000000000000000e+00) (6, 5, 1.00000000000000000000e+00) (6, 5, 1.00000000000000000000e+00) (6, 5, 1.00000000000000000000e+00) (6, 5, 1.00000000000000000000e+00) (6, 5, 1.00000000000000000000e+00) (6, 5, 1.00000000000000000000e+00) (6, 5, 1.00000000000000000000e+00) (6, 5, 1.00000000000000000000e+00) (6, 5, 1.00000000000000000000e+00) (6, 5, 1.00000000000000000000e+00) (6, 5, 1.00000000000000000000e+00) (6, 5, 1.00000000000000000000e+00) (6, 5, 1.00000000000000000000e+00) (6, 5, 1.00000000000000000000e+00) (6, 5, 1.00000000000000000000e+00) (6, 5, 1.00000000000000000000e+00) (6, 5, 1.00000000000000000000e+00) (6, 5, 1.00000000000000000000e+00) (6, 5, 1.00000000000000000000e+00) (6, 5, 1.00000000000000000000e+00) (6, 5, 1.00000000000000000000e+00) (6, 5, 1.00000000000000000000e+00) (6, 5, 1.00000000000000000000e+00) (6, 5, 1.00000000000000000000e+00) (6, 5, 1.00000000000000000000e+00) (0, 5, 1.00000000000000000000e+00) (51, 5, 1.00000000000000000000e+00) (0, 5, 1.00000000000000000000e+00) 
connections (connected_to_neuron, weight)=(0, 9.18149414062500000000e+02) (1, 8.47664672851562500000e+02) (2, 6.86066162109375000000e+02) (3, 6.17710632324218750000e+02) (4, 1.08750439453125000000e+03) (5, 1.50000000000000000000e+03) (0, 1.10141162109375000000e+03) (1, 7.02948852539062500000e+02) (2, 2.58045837402343750000e+02) (3, 2.40495666503906250000e+02) (4, 9.38795776367187500000e+02) (5, 1.50000000000000000000e+03) (0, 8.03477905273437500000e+02) (1, 8.35008239746093750000e+02) (2, 2.36226348876953125000e+02) (3, 2.58766967773437500000e+02) (4, 7.87223632812500000000e+02) (5, 1.50000000000000000000e+03) (0, 7.94443725585937500000e+02) (1, 1.00540563964843750000e+03) (2, 2.66423461914062500000e+02) (3, 1.40859024047851562500e+02) (4, 1.07068054199218750000e+03) (5, 1.50000000000000000000e+03) (0, 8.04431762695312500000e+02) (1, 1.14454675292968750000e+03) (2, 2.57781860351562500000e+02) (3, 2.06877685546875000000e+02) (4, 9.97342773437500000000e+02) (5, 1.50000000000000000000e+03) (0, 1.18293359375000000000e+03) (1, 8.37874389648437500000e+02) (2, 2.57221069335937500000e+02) (3, 2.40814636230468750000e+02) (4, 7.85985717773437500000e+02) (5, 1.50000000000000000000e+03) (0, 1.17636865234375000000e+03) (1, 5.85058593750000000000e+02) (2, 2.88627471923828125000e+02) (3, 2.40737976074218750000e+02) (4, 7.84798095703125000000e+02) (5, 1.50000000000000000000e+03) (0, 9.52582885742187500000e+02) (1, 9.39844665527343750000e+02) (2, 2.58703582763671875000e+02) (3, 2.28717407226562500000e+02) (4, 9.96391601562500000000e+02) (5, 1.50000000000000000000e+03) (0, 8.09780151367187500000e+02) (1, 1.16977185058593750000e+03) (2, 2.57393524169921875000e+02) (3, 2.40440704345703125000e+02) (4, 7.87097167968750000000e+02) (5, 1.50000000000000000000e+03) (0, 8.02294128417968750000e+02) (1, 9.13122436523437500000e+02) (2, 2.57663146972656250000e+02) (3, 2.40668273925781250000e+02) (4, 7.82014343261718750000e+02) (5, 1.50000000000000000000e+03) (0, 8.02170410156250000000e+02) (1, 9.13194519042968750000e+02) (2, 2.57425354003906250000e+02) (3, 2.40733886718750000000e+02) (4, 7.81801330566406250000e+02) (5, 1.50000000000000000000e+03) (0, 1.18413488769531250000e+03) (1, 8.38332153320312500000e+02) (2, 2.32530120849609375000e+02) (3, 2.41578613281250000000e+02) (4, 1.12301562500000000000e+03) (5, 1.50000000000000000000e+03) (0, 1.19637963867187500000e+03) (1, 9.66215698242187500000e+02) (2, 1.95457702636718750000e+02) (3, 1.88947082519531250000e+02) (4, 7.63929504394531250000e+02) (5, 1.50000000000000000000e+03) (0, 1.45000000000000000000e+03) (1, 9.55014648437500000000e+02) (2, 2.89183563232421875000e+02) (3, 2.42564819335937500000e+02) (4, 7.84491577148437500000e+02) (5, 1.50000000000000000000e+03) (0, 1.34339721679687500000e+03) (1, 9.51643981933593750000e+02) (2, 6.63829223632812500000e+02) (3, 6.78244262695312500000e+02) (4, 1.30095166015625000000e+03) (5, 1.50000000000000000000e+03) (0, 1.15114794921875000000e+03) (1, 9.67927490234375000000e+02) (2, 9.60565307617187500000e+02) (3, 6.44831604003906250000e+02) (4, 9.48173156738281250000e+02) (5, 1.50000000000000000000e+03) (0, 1.28688427734375000000e+03) (1, 8.86424865722656250000e+02) (2, 1.95131042480468750000e+02) (3, 2.62643066406250000000e+02) (4, 1.10977465820312500000e+03) (5, 1.50000000000000000000e+03) (0, 1.18339135742187500000e+03) (1, 1.16984338378906250000e+03) (2, 2.56951629638671875000e+02) (3, 2.40419067382812500000e+02) (4, 1.11901013183593750000e+03) (5, 1.50000000000000000000e+03) (0, 1.15695947265625000000e+03) (1, 8.25733032226562500000e+02) (2, 2.57659423828125000000e+02) (3, 2.69600219726562500000e+02) (4, 1.04474462890625000000e+03) (5, 1.50000000000000000000e+03) (0, 1.24141381835937500000e+03) (1, 9.60608215332031250000e+02) (2, 4.33712646484375000000e+02) (3, 4.36851745605468750000e+02) (4, 1.00673181152343750000e+03) (5, 1.50000000000000000000e+03) (0, 9.61666809082031250000e+02) (1, 7.03819335937500000000e+02) (2, 1.89750427246093750000e+02) (3, 2.11180053710937500000e+02) (4, 7.85329467773437500000e+02) (5, 1.50000000000000000000e+03) (0, 7.96844482421875000000e+02) (1, 8.25630371093750000000e+02) (2, 1.88183135986328125000e+02) (3, 2.20839111328125000000e+02) (4, 9.44453063964843750000e+02) (5, 1.50000000000000000000e+03) (0, 9.53348937988281250000e+02) (1, 8.33160095214843750000e+02) (2, 2.50115905761718750000e+02) (3, 2.28867370605468750000e+02) (4, 8.91992248535156250000e+02) (5, 1.50000000000000000000e+03) (0, 1.27224975585937500000e+03) (1, 8.80745910644531250000e+02) (2, 2.95854125976562500000e+02) (3, 2.74821990966796875000e+02) (4, 1.27542724609375000000e+03) (5, 1.50000000000000000000e+03) (0, 8.08964965820312500000e+02) (1, 1.05605078125000000000e+03) (2, 2.88871124267578125000e+02) (3, 2.59045318603515625000e+02) (4, 1.12501611328125000000e+03) (5, 1.50000000000000000000e+03) (0, 1.39903625488281250000e+03) (1, 1.07579431152343750000e+03) (2, 3.10431762695312500000e+02) (3, 2.45008697509765625000e+02) (4, 1.08258544921875000000e+03) (5, 1.50000000000000000000e+03) (0, 1.17201672363281250000e+03) (1, 8.97721557617187500000e+02) (2, 3.58537414550781250000e+02) (3, 2.32722991943359375000e+02) (4, 1.15435961914062500000e+03) (5, 1.50000000000000000000e+03) (0, 1.19424841308593750000e+03) (1, 9.56405700683593750000e+02) (2, 2.57040557861328125000e+02) (3, 2.17400024414062500000e+02) (4, 9.35331604003906250000e+02) (5, 1.50000000000000000000e+03) (0, 9.55740661621093750000e+02) (1, 9.00313842773437500000e+02) (2, 2.32242553710937500000e+02) (3, 2.58269104003906250000e+02) (4, 6.49174255371093750000e+02) (5, 1.50000000000000000000e+03) (0, 1.12462463378906250000e+03) (1, 1.20196032714843750000e+03) (2, 8.81817077636718750000e+02) (3, 8.19496215820312500000e+02) (4, 1.02871386718750000000e+03) (5, 1.50000000000000000000e+03) (0, 1.12463806152343750000e+03) (1, 7.20666564941406250000e+02) (2, 1.11541894531250000000e+03) (3, 8.83188720703125000000e+02) (4, 7.85458068847656250000e+02) (5, 1.50000000000000000000e+03) (0, 6.70489501953125000000e+02) (1, 9.55663696289062500000e+02) (2, 2.57574737548828125000e+02) (3, 2.57774505615234375000e+02) (4, 9.18214233398437500000e+02) (5, 1.50000000000000000000e+03) (0, 9.64065185546875000000e+02) (1, 8.37523864746093750000e+02) (2, 2.58325195312500000000e+02) (3, 2.40477325439453125000e+02) (4, 9.47067077636718750000e+02) (5, 1.50000000000000000000e+03) (0, 1.13922167968750000000e+03) (1, 1.11092456054687500000e+03) (2, 7.60113037109375000000e+02) (3, 7.69967163085937500000e+02) (4, 1.19440795898437500000e+03) (5, 1.50000000000000000000e+03) (0, 1.18394116210937500000e+03) (1, 1.02469946289062500000e+03) (2, 7.13995544433593750000e+02) (3, 4.17440551757812500000e+02) (4, 1.12232238769531250000e+03) (5, 1.50000000000000000000e+03) (0, 1.45000000000000000000e+03) (1, 9.55072082519531250000e+02) (2, 2.57922668457031250000e+02) (3, 2.70485351562500000000e+02) (4, 1.12256005859375000000e+03) (5, 1.50000000000000000000e+03) (0, 1.17793151855468750000e+03) (1, 9.55241455078125000000e+02) (2, 2.57883941650390625000e+02) (3, 2.17061859130859375000e+02) (4, 1.07775292968750000000e+03) (5, 1.50000000000000000000e+03) (0, 9.66183349609375000000e+02) (1, 1.31101782226562500000e+03) (2, 2.88814056396484375000e+02) (3, 2.57684936523437500000e+02) (4, 7.86598937988281250000e+02) (5, 1.50000000000000000000e+03) (0, 8.08735351562500000000e+02) (1, 8.37799865722656250000e+02) (2, 2.57636840820312500000e+02) (3, 2.40825134277343750000e+02) (4, 9.45081115722656250000e+02) (5, 1.50000000000000000000e+03) (0, 8.09188049316406250000e+02) (1, 9.55624511718750000000e+02) (2, 2.58200195312500000000e+02) (3, 2.17814819335937500000e+02) (4, 7.86607604980468750000e+02) (5, 1.50000000000000000000e+03) (0, 8.09775634765625000000e+02) (1, 9.55324401855468750000e+02) (2, 2.88664581298828125000e+02) (3, 2.41346801757812500000e+02) (4, 1.12580212402343750000e+03) (5, 1.50000000000000000000e+03) (0, 7.95294433593750000000e+02) (1, 1.00554162597656250000e+03) (2, 2.66601654052734375000e+02) (3, 1.41203414916992187500e+02) (4, 1.07097729492187500000e+03) (5, 1.50000000000000000000e+03) (0, 1.29622631835937500000e+03) (1, 9.94690795898437500000e+02) (2, 7.86944763183593750000e+02) (3, 5.09247802734375000000e+02) (4, 1.02751440429687500000e+03) (5, 1.50000000000000000000e+03) (0, 1.24173657226562500000e+03) (1, 1.03273364257812500000e+03) (2, 2.99671325683593750000e+02) (3, 2.77366821289062500000e+02) (4, 1.00687585449218750000e+03) (5, 1.50000000000000000000e+03) (0, 1.29382128906250000000e+03) (1, 1.02513317871093750000e+03) (2, 3.52082977294921875000e+02) (3, 3.33382843017578125000e+02) (4, 1.16065148925781250000e+03) (5, 1.50000000000000000000e+03) (0, 1.20622778320312500000e+03) (1, 9.09568664550781250000e+02) (2, 8.33308044433593750000e+02) (3, 3.70223510742187500000e+02) (4, 1.06670507812500000000e+03) (5, 1.50000000000000000000e+03) (0, 9.32231445312500000000e+02) (1, 8.16361022949218750000e+02) (2, 2.94930786132812500000e+02) (3, 3.45860778808593750000e+02) (4, 8.91154357910156250000e+02) (5, 1.50000000000000000000e+03) (0, 8.12460083007812500000e+02) (1, 8.20784973144531250000e+02) (2, 2.57360290527343750000e+02) (3, 2.40741668701171875000e+02) (4, 9.14285522460937500000e+02) (5, 1.50000000000000000000e+03) (0, 1.43607348632812500000e+03) (1, 7.02835205078125000000e+02) (2, 2.57341461181640625000e+02) (3, 2.28164550781250000000e+02) (4, 1.18402587890625000000e+03) (5, 1.50000000000000000000e+03) (0, 1.17999633789062500000e+03) (1, 9.54952087402343750000e+02) (2, 2.91058532714843750000e+02) (3, 2.40711853027343750000e+02) (4, 1.12268786621093750000e+03) (5, 1.50000000000000000000e+03) (6, 1.94443115234375000000e+02) (7, 1.45000000000000000000e+03) (8, 1.50000000000000000000e+03) (9, 1.50000000000000000000e+03) (10, 1.21943701171875000000e+03) (11, 4.05433593750000000000e+02) (12, 8.20894714355468750000e+02) (13, 5.74136718750000000000e+02) (14, 9.57639160156250000000e+02) (15, 1.11465148925781250000e+03) (16, 1.11483935546875000000e+03) (17, 1.26476452636718750000e+03) (18, 1.45000000000000000000e+03) (19, 8.08370178222656250000e+02) (20, 6.78277130126953125000e+01) (21, 1.59629302978515625000e+02) (22, 1.04541113281250000000e+03) (23, 1.25037866210937500000e+03) (24, 1.45000000000000000000e+03) (25, 1.98548583984375000000e+02) (26, 1.50000000000000000000e+03) (27, 1.50000000000000000000e+03) (28, 8.88546020507812500000e+02) (29, 1.02577563476562500000e+03) (30, 1.18880102539062500000e+03) (31, 7.19824951171875000000e+02) (32, 6.53131713867187500000e+02) (33, 9.50695434570312500000e+02) (34, 1.50000000000000000000e+03) (35, 1.85487976074218750000e+02) (36, 1.93087127685546875000e+02) (37, 1.50000000000000000000e+03) (38, 1.45000000000000000000e+03) (39, 1.85881072998046875000e+02) (40, 1.60403930664062500000e+02) (41, 9.28517089843750000000e+02) (42, 5.90409667968750000000e+02) (43, 4.84433959960937500000e+02) (44, 8.96250122070312500000e+02) (45, 6.73115234375000000000e+02) (46, 5.58207519531250000000e+02) (47, 1.50000000000000000000e+03) (48, 1.60137329101562500000e+02) (49, 3.83228515625000000000e+02) (50, 4.60087097167968750000e+02) (51, 1.24012359619140625000e+02) (52, 1.08193115234375000000e+03) (53, 1.45000000000000000000e+03) (54, 1.45000000000000000000e+03) (55, 1.04619592285156250000e+03) (56, 1.50000000000000000000e+03) 
