FANN_FLO_2.1
num_layers=3
learning_rate=0.700000
connection_rate=1.000000
network_type=0
learning_momentum=0.000000
training_algorithm=2
train_error_function=1
train_stop_function=1
cascade_output_change_fraction=0.010000
quickprop_decay=-0.000100
quickprop_mu=1.750000
rprop_increase_factor=1.200000
rprop_decrease_factor=0.500000
rprop_delta_min=0.000000
rprop_delta_max=50.000000
rprop_delta_zero=0.100000
cascade_output_stagnation_epochs=12
cascade_candidate_change_fraction=0.010000
cascade_candidate_stagnation_epochs=12
cascade_max_out_epochs=150
cascade_min_out_epochs=50
cascade_max_cand_epochs=150
cascade_min_cand_epochs=50
cascade_num_candidate_groups=2
bit_fail_limit=0.00000000000000000000e+00
cascade_candidate_limit=1.00000000000000000000e+03
cascade_weight_multiplier=4.00000005960464477539e-01
cascade_activation_functions_count=10
cascade_activation_functions=3 5 7 8 10 11 14 15 16 17 
cascade_activation_steepnesses_count=4
cascade_activation_steepnesses=2.50000000000000000000e-01 5.00000000000000000000e-01 7.50000000000000000000e-01 1.00000000000000000000e+00 
layer_sizes=6 51 2 
scale_included=0
neurons (num_inputs, activation_function, activation_steepness)=(0, 0, 0.00000000000000000000e+00) (0, 0, 0.00000000000000000000e+00) (0, 0, 0.00000000000000000000e+00) (0, 0, 0.00000000000000000000e+00) (0, 0, 0.00000000000000000000e+00) (0, 0, 0.00000000000000000000e+00) (6, 5, 1.00000000000000000000e+00) (6, 5, 1.00000000000000000000e+00) (6, 5, 1.00000000000000000000e+00) (6, 5, 1.00000000000000000000e+00) (6, 5, 1.00000000000000000000e+00) (6, 5, 1.00000000000000000000e+00) (6, 5, 1.00000000000000000000e+00) (6, 5, 1.00000000000000000000e+00) (6, 5, 1.00000000000000000000e+00) (6, 5, 1.00000000000000000000e+00) (6, 5, 1.00000000000000000000e+00) (6, 5, 1.00000000000000000000e+00) (6, 5, 1.00000000000000000000e+00) (6, 5, 1.00000000000000000000e+00) (6, 5, 1.00000000000000000000e+00) (6, 5, 1.00000000000000000000e+00) (6, 5, 1.00000000000000000000e+00) (6, 5, 1.00000000000000000000e+00) (6, 5, 1.00000000000000000000e+00) (6, 5, 1.00000000000000000000e+00) (6, 5, 1.00000000000000000000e+00) (6, 5, 1.00000000000000000000e+00) (6, 5, 1.00000000000000000000e+00) (6, 5, 1.00000000000000000000e+00) (6, 5, 1.00000000000000000000e+00) (6, 5, 1.00000000000000000000e+00) (6, 5, 1.00000000000000000000e+00) (6, 5, 1.00000000000000000000e+00) (6, 5, 1.00000000000000000000e+00) (6, 5, 1.00000000000000000000e+00) (6, 5, 1.00000000000000000000e+00) (6, 5, 1.00000000000000000000e+00) (6, 5, 1.00000000000000000000e+00) (6, 5, 1.00000000000000000000e+00) (6, 5, 1.00000000000000000000e+00) (6, 5, 1.00000000000000000000e+00) (6, 5, 1.00000000000000000000e+00) (6, 5, 1.00000000000000000000e+00) (6, 5, 1.00000000000000000000e+00) (6, 5, 1.00000000000000000000e+00) (6, 5, 1.00000000000000000000e+00) (6, 5, 1.00000000000000000000e+00) (6, 5, 1.00000000000000000000e+00) (6, 5, 1.00000000000000000000e+00) (6, 5, 1.00000000000000000000e+00) (6, 5, 1.00000000000000000000e+00) (6, 5, 1.00000000000000000000e+00) (6, 5, 1.00000000000000000000e+00) (6, 5, 1.00000000000000000000e+00) (6, 5, 1.00000000000000000000e+00) (0, 5, 1.00000000000000000000e+00) (51, 5, 1.00000000000000000000e+00) (0, 5, 1.00000000000000000000e+00) 
connections (connected_to_neuron, weight)=(0, 1.50000000000000000000e+03) (1, 1.50000000000000000000e+03) (2, 1.50000000000000000000e+03) (3, 1.50000000000000000000e+03) (4, 1.50000000000000000000e+03) (5, 1.50000000000000000000e+03) (0, 6.30525054931640625000e+01) (1, 4.98322296142578125000e+01) (2, 7.79061355590820312500e+01) (3, 2.88518615722656250000e+02) (4, 5.98029556274414062500e+01) (5, 6.26402282714843750000e+01) (0, 4.49842315673828125000e+02) (1, 7.05239929199218750000e+02) (2, 5.41777832031250000000e+02) (3, 4.35033599853515625000e+02) (4, 4.39244384765625000000e+02) (5, 5.73912719726562500000e+02) (0, 1.50000000000000000000e+03) (1, 1.50000000000000000000e+03) (2, 1.50000000000000000000e+03) (3, 1.50000000000000000000e+03) (4, 1.50000000000000000000e+03) (5, 1.50000000000000000000e+03) (0, 1.97851806640625000000e+02) (1, 4.27645935058593750000e+02) (2, 1.97295196533203125000e+02) (3, 4.04505706787109375000e+02) (4, 1.99498626708984375000e+02) (5, 3.18700927734375000000e+02) (0, 1.91692077636718750000e+02) (1, 5.21165283203125000000e+02) (2, 2.81811004638671875000e+02) (3, 2.93568969726562500000e+02) (4, 2.06093017578125000000e+02) (5, 1.82676177978515625000e+02) (0, -4.51999092102050781250e+01) (1, -1.08799224853515625000e+02) (2, 4.69620132446289062500e+01) (3, 1.76742248535156250000e+02) (4, -5.54801940917968750000e+00) (5, -5.66685981750488281250e+01) (0, 1.98952301025390625000e+02) (1, 4.31966979980468750000e+02) (2, 3.84318756103515625000e+02) (3, 3.67039093017578125000e+02) (4, 1.88577850341796875000e+02) (5, 2.80248840332031250000e+02) (0, 8.48165588378906250000e+01) (1, 4.75680465698242187500e+01) (2, 1.81098709106445312500e+02) (3, 1.95935729980468750000e+02) (4, 1.03364990234375000000e+02) (5, 1.08346649169921875000e+02) (0, 5.47986145019531250000e+01) (1, 2.70165557861328125000e+01) (2, 1.54540832519531250000e+02) (3, 2.04917755126953125000e+02) (4, 9.54613037109375000000e+01) (5, 7.59285888671875000000e+01) (0, 1.50000000000000000000e+03) (1, 1.50000000000000000000e+03) (2, 1.50000000000000000000e+03) (3, 1.50000000000000000000e+03) (4, 1.50000000000000000000e+03) (5, 1.50000000000000000000e+03) (0, 1.50000000000000000000e+03) (1, 1.50000000000000000000e+03) (2, 1.50000000000000000000e+03) (3, 1.50000000000000000000e+03) (4, 1.50000000000000000000e+03) (5, 1.50000000000000000000e+03) (0, 1.58785049438476562500e+02) (1, 3.59252990722656250000e+02) (2, 2.60151885986328125000e+02) (3, 1.63513031005859375000e+02) (4, 8.46026611328125000000e+01) (5, 1.56087860107421875000e+02) (0, 6.70966262817382812500e+01) (1, -1.18220260620117187500e+02) (2, 1.61136352539062500000e+02) (3, 1.56258972167968750000e+02) (4, 5.82876892089843750000e+01) (5, 7.86035156250000000000e+01) (0, 1.50000000000000000000e+03) (1, 1.50000000000000000000e+03) (2, 1.50000000000000000000e+03) (3, 1.50000000000000000000e+03) (4, 1.50000000000000000000e+03) (5, 1.50000000000000000000e+03) (0, 1.83600158691406250000e+02) (1, 5.21090026855468750000e+02) (2, 2.82884094238281250000e+02) (3, 2.92938476562500000000e+02) (4, 2.06424682617187500000e+02) (5, 1.80204040527343750000e+02) (0, 4.30986022949218750000e+01) (1, -6.07875976562500000000e+01) (2, 1.44914550781250000000e+02) (3, 1.30678344726562500000e+02) (4, 6.33627243041992187500e+01) (5, 4.08676300048828125000e+01) (0, 1.99987976074218750000e+02) (1, -3.17871948242187500000e+02) (2, 8.87007904052734375000e+00) (3, 1.28197662353515625000e+02) (4, -3.60227584838867187500e+00) (5, 1.60135253906250000000e+02) (0, 9.41103210449218750000e+01) (1, 4.00087585449218750000e+01) (2, 1.93849441528320312500e+02) (3, 1.91355560302734375000e+02) (4, 9.91402587890625000000e+01) (5, 1.09226898193359375000e+02) (0, -5.80370979309082031250e+01) (1, -1.14633911132812500000e+02) (2, 1.63350128173828125000e+02) (3, 3.57803726196289062500e+01) (4, 2.15512161254882812500e+01) (5, 4.58988571166992187500e+01) (0, 1.84213500976562500000e+02) (1, 4.63377929687500000000e+02) (2, 3.49192749023437500000e+02) (3, 2.99980804443359375000e+02) (4, 2.41380798339843750000e+02) (5, 2.09449981689453125000e+02) (0, 2.72267837524414062500e+01) (1, -3.27531463623046875000e+02) (2, 9.55207519531250000000e+01) (3, 7.93202209472656250000e+01) (4, 5.03633956909179687500e+01) (5, 1.95445098876953125000e+02) (0, 3.41991333007812500000e+02) (1, 6.98855041503906250000e+02) (2, 3.80767822265625000000e+02) (3, 6.76175354003906250000e+02) (4, 4.32639801025390625000e+02) (5, 3.41249725341796875000e+02) (0, -6.06086196899414062500e+01) (1, -7.42022018432617187500e+01) (2, 3.40154876708984375000e+01) (3, 2.42637786865234375000e+01) (4, -2.36787567138671875000e+01) (5, 1.87558135986328125000e+01) (0, 2.50432708740234375000e+02) (1, 7.72461303710937500000e+02) (2, 4.10464385986328125000e+02) (3, 3.63559753417968750000e+02) (4, 3.35364013671875000000e+02) (5, 3.20286010742187500000e+02) (0, 1.50000000000000000000e+03) (1, 1.50000000000000000000e+03) (2, 1.50000000000000000000e+03) (3, 1.50000000000000000000e+03) (4, 1.50000000000000000000e+03) (5, 1.50000000000000000000e+03) (0, 6.35034484863281250000e+01) (1, 2.92752502441406250000e+02) (2, 1.61431457519531250000e+02) (3, 6.26004486083984375000e+01) (4, -1.98743820190429687500e+01) (5, 6.56471099853515625000e+01) (0, 1.29520385742187500000e+02) (1, -1.08313491821289062500e+02) (2, 6.37296218872070312500e+01) (3, 1.45514968872070312500e+02) (4, 5.71564788818359375000e+01) (5, 5.99669342041015625000e+01) (0, 5.69344238281250000000e+02) (1, 6.66558776855468750000e+02) (2, 3.49034484863281250000e+02) (3, 3.84892181396484375000e+02) (4, 2.81250030517578125000e+02) (5, 3.50476715087890625000e+02) (0, 3.21625595092773437500e+01) (1, -1.09029876708984375000e+02) (2, 6.11574783325195312500e+01) (3, 2.25817962646484375000e+02) (4, -4.74525451660156250000e+00) (5, -4.92386512756347656250e+01) (0, 1.55521514892578125000e+02) (1, 3.59192718505859375000e+02) (2, 1.51405578613281250000e+02) (3, 1.28702148437500000000e+02) (4, 1.78950897216796875000e+02) (5, 1.53610656738281250000e+02) (0, 4.93019180297851562500e+01) (1, -1.76158355712890625000e+02) (2, -5.05557594299316406250e+01) (3, 1.77231124877929687500e+02) (4, -4.99683876037597656250e+01) (5, -9.51004028320312500000e+00) (0, 1.50000000000000000000e+03) (1, 1.50000000000000000000e+03) (2, 1.50000000000000000000e+03) (3, 1.50000000000000000000e+03) (4, 1.50000000000000000000e+03) (5, 1.50000000000000000000e+03) (0, -4.78037757873535156250e+01) (1, -1.48479537963867187500e+02) (2, 4.83607864379882812500e+01) (3, 6.16667022705078125000e+01) (4, -2.78302173614501953125e+01) (5, -4.82409400939941406250e+01) (0, 6.37123184204101562500e+01) (1, -3.27414428710937500000e+02) (2, 4.86091384887695312500e+01) (3, 5.33403015136718750000e+01) (4, 2.39813766479492187500e+01) (5, 1.03881347656250000000e+02) (0, 2.74378326416015625000e+02) (1, 6.45094238281250000000e+02) (2, 2.97093505859375000000e+02) (3, 4.83015563964843750000e+02) (4, 4.51440460205078125000e+02) (5, 4.91032836914062500000e+02) (0, -6.96513137817382812500e+01) (1, -7.47244033813476562500e+01) (2, 4.08590087890625000000e+01) (3, 3.32257690429687500000e+01) (4, -1.65715103149414062500e+01) (5, 4.83831024169921875000e+01) (0, 1.91718109130859375000e+02) (1, 5.21183715820312500000e+02) (2, 2.81643127441406250000e+02) (3, 2.93475006103515625000e+02) (4, 2.06149475097656250000e+02) (5, 1.83814025878906250000e+02) (0, 1.50000000000000000000e+03) (1, 1.50000000000000000000e+03) (2, 1.50000000000000000000e+03) (3, 1.50000000000000000000e+03) (4, 1.50000000000000000000e+03) (5, 1.50000000000000000000e+03) (0, -5.23761177062988281250e+01) (1, -1.11454956054687500000e+02) (2, -3.35837554931640625000e+01) (3, 1.93201690673828125000e+02) (4, 1.54573516845703125000e+02) (5, -5.02672004699707031250e+01) (0, 1.50000000000000000000e+03) (1, 1.50000000000000000000e+03) (2, 1.50000000000000000000e+03) (3, 1.50000000000000000000e+03) (4, 1.50000000000000000000e+03) (5, 1.50000000000000000000e+03) (0, -4.18388252258300781250e+01) (1, -1.07889678955078125000e+02) (2, -1.39604187011718750000e+01) (3, 1.10016845703125000000e+02) (4, 1.04592102050781250000e+02) (5, 3.20449829101562500000e+00) (0, 5.64864501953125000000e+01) (1, -1.08337280273437500000e+02) (2, 1.56489807128906250000e+02) (3, 1.41631561279296875000e+02) (4, 1.42990142822265625000e+02) (5, 5.82947692871093750000e+01) (0, -4.13791389465332031250e+01) (1, -1.04650085449218750000e+02) (2, 5.04262161254882812500e+01) (3, 1.09124359130859375000e+02) (4, 7.57929763793945312500e+01) (5, -4.48369178771972656250e+01) (0, 5.06603393554687500000e+01) (1, 1.97730178833007812500e+01) (2, 4.53559417724609375000e+01) (3, 1.96985015869140625000e+02) (4, 2.06208831787109375000e+02) (5, 2.25112945556640625000e+02) (0, 9.77731323242187500000e+00) (1, 5.61505889892578125000e+01) (2, 1.50327224731445312500e+02) (3, 1.86728820800781250000e+02) (4, 1.24244140625000000000e+02) (5, 2.74913101196289062500e+01) (0, 1.91587921142578125000e+02) (1, -1.18637802124023437500e+02) (2, 5.92049713134765625000e+01) (3, 1.51798797607421875000e+02) (4, 5.71378479003906250000e+01) (5, 5.01070709228515625000e+01) (0, -5.01194953918457031250e+01) (1, -3.27576354980468750000e+02) (2, 7.06437301635742187500e+01) (3, 4.80400848388671875000e+01) (4, 2.19475326538085937500e+01) (5, 6.81388092041015625000e+00) (0, -2.31701526641845703125e+01) (1, -1.75299041748046875000e+02) (2, 2.36124954223632812500e+01) (3, 6.22198486328125000000e+01) (4, 4.88757705688476562500e+01) (5, -1.18884277343750000000e+00) (0, -1.51534729003906250000e+01) (1, -1.76144683837890625000e+02) (2, 6.99326858520507812500e+01) (3, 7.41979827880859375000e+01) (4, -2.10175800323486328125e+01) (5, -5.28396034240722656250e+01) (6, -5.69341316223144531250e+01) (7, -2.32859039306640625000e+00) (8, -3.82414245605468750000e+01) (9, -7.27765960693359375000e+01) (10, -1.14617538452148437500e+01) (11, -1.28472518920898437500e+01) (12, 1.07721832275390625000e+02) (13, -1.19218292236328125000e+01) (14, 3.83676223754882812500e+01) (15, 9.85747375488281250000e+01) (16, -5.44902534484863281250e+01) (17, -7.29139251708984375000e+01) (18, -7.99340438842773437500e+00) (19, 6.45951080322265625000e+01) (20, -5.65818672180175781250e+01) (21, -1.47786712646484375000e+01) (22, 9.25835571289062500000e+01) (23, 5.33627075195312500000e+02) (24, 3.92555999755859375000e+01) (25, 4.36111526489257812500e+01) (26, -1.22500381469726562500e+01) (27, 1.60203857421875000000e+02) (28, -3.81012268066406250000e+01) (29, 2.38075958251953125000e+02) (30, -3.51890335083007812500e+01) (31, -5.75376625061035156250e+01) (32, 5.41117706298828125000e+01) (33, 7.89108886718750000000e+01) (34, -2.97724094390869140625e+01) (35, 1.24593688964843750000e+02) (36, -8.44026565551757812500e+00) (37, 1.58396514892578125000e+02) (38, -7.30447998046875000000e+01) (39, 2.68113220214843750000e+02) (40, 2.42220214843750000000e+02) (41, -3.76047973632812500000e+01) (42, 1.11941970825195312500e+02) (43, -1.28479843139648437500e+01) (44, -7.49387359619140625000e+01) (45, 1.08909149169921875000e+02) (46, -7.30156707763671875000e+01) (47, 8.52929687500000000000e+01) (48, 7.88621826171875000000e+01) (49, 8.49196472167968750000e+01) (50, 4.50286483764648437500e+01) (51, 6.58970489501953125000e+01) (52, 7.98023986816406250000e+01) (53, 1.50000000000000000000e+03) (54, 2.72006134033203125000e+02) (55, 2.13594024658203125000e+02) (56, -5.62477149963378906250e+01) 
